<?xml version="1.0" encoding="UTF-8"?>
<!-- This network was created in trial version of GeNIe, which can be used for evaluation purposes only -->
<smile version="1.0" id="Network3" numsamples="10000" discsamples="10000">
	<nodes>
		<cpt id="TipoPlanta">
			<state id="Arroz" />
			<state id="Maiz" />
			<probabilities>0.4977341389728097 0.5022658610271903</probabilities>
		</cpt>
		<cpt id="Estacion">
			<state id="Primavera" />
			<state id="Verano" />
			<state id="Invierno" />
			<state id="Otonio" />
			<probabilities>0.2481117824773414 0.2284743202416918 0.2526435045317221 0.2707703927492447</probabilities>
		</cpt>
		<cpt id="HojaRota">
			<state id="Si" />
			<state id="No" />
			<parents>TipoPlanta Estacion</parents>
			<probabilities>0.08666666666666667 0.9133333333333334 0.09493670886075949 0.9050632911392404 0.4101123595505618 0.5898876404494382 0.3055555555555556 0.6944444444444444 0.1043956043956044 0.8956043956043956 0.1148648648648649 0.8851351351351352 0.48125 0.51875 0.2252747252747253 0.7747252747252747</probabilities>
		</cpt>
		<cpt id="ColorHoja">
			<state id="Amarronada" />
			<state id="Rojiza" />
			<state id="Amarilla" />
			<state id="Verde" />
			<parents>TipoPlanta</parents>
			<probabilities>0.2643939393939394 0.231060606060606 0.2431818181818182 0.2613636363636364 0.292042042042042 0.274024024024024 0.1869369369369369 0.246996996996997</probabilities>
		</cpt>
		<cpt id="FormaLesion">
			<state id="Ovalado" />
			<state id="Circular" />
			<state id="Longitudinal" />
			<state id="NoLesion" />
			<parents>TipoPlanta Estacion</parents>
			<probabilities>0.11 0.1766666666666667 0.23 0.4833333333333333 0.180379746835443 0.1677215189873418 0.1677215189873418 0.4841772151898734 0.1713483146067416 0.148876404494382 0.2275280898876405 0.4522471910112359 0.1694444444444445 0.1472222222222222 0.1583333333333333 0.525 0.1785714285714286 0.1346153846153846 0.1895604395604396 0.4972527472527473 0.1790540540540541 0.1925675675675676 0.152027027027027 0.4763513513513514 0.153125 0.190625 0.240625 0.415625 0.2005494505494506 0.1456043956043956 0.1565934065934066 0.4972527472527473</probabilities>
		</cpt>
		<cpt id="mm">
			<state id="" />
			<state id="" />
			<state id="" />
			<state id="" />
			<intervals>30 55 80 105 130</intervals>
			<parents>Estacion</parents>
			<probabilities>0.8427973103409624 0.1239485056456656 0.01463709949393107 0.01861708451944093 0.02797162670294404 0.0328479619314718 0.9122273885939305 0.02695302277165374 0.1719610333705498 0.6768764316427293 0.07892981237063336 0.07223272261608754 0.295075811201392 0.1235264873038739 0.2030666657178563 0.3783310357768778</probabilities>
		</cpt>
		<cpt id="Enferma">
			<state id="Enferma" />
			<state id="NoEnferma" />
			<parents>ColorHoja mm HojaRota FormaLesion</parents>
			<probabilities>0.7356053111241592 0.2643946888758408 0.4603281547842245 0.5396718452157755 0.5519305077444246 0.4480694922555754 0.7178089432319589 0.2821910567680412 0.3288499148587634 0.6711500851412366 0.04846469827607124 0.9515353017239286 0.1972203106422626 0.8027796893577375 0.849582755118291 0.1504172448817091 0.2013314523041191 0.7986685476958809 0.1601645190058694 0.8398354809941306 0.2861098896521759 0.7138901103478241 0.7193523730721419 0.280647626927858 0.3198962809672452 0.6801037190327548 0.09626928011757314 0.9037307198824269 0.7293936626859168 0.2706063373140833 0.6046127242971679 0.3953872757028323 0.5045410218799855 0.4954589781200144 0.8289991889565659 0.1710008110434342 0.286217188322275 0.7137828116777249 0.8845421176289894 0.1154578823710106 0.3380592284031429 0.6619407715968572 0.3823301891909954 0.6176698108090046 0.6684344270045145 0.3315655729954856 0.7996167593533644 0.2003832406466357 0.562127335077527 0.4378726649224731 0.5984705499614744 0.4015294500385256 0.6314951778556472 0.3685048221443527 0.7303930862793958 0.2696069137206041 0.3513715561813661 0.6486284438186339 0.5476014690054458 0.4523985309945542 0.3473624032867564 0.6526375967132436 0.7925593576330537 0.2074406423669463 0.4261999314394727 0.5738000685605272 0.6623625315083959 0.3376374684916041 0.3359145889261084 0.6640854110738915 0.8021270005796167 0.1978729994203832 0.2665496926576975 0.7334503073423027 0.09579802880341876 0.9042019711965813 0.3181398544072911 0.6818601455927088 0.6846092398350467 0.3153907601649533 0.1452256573543408 0.8547743426456593 0.4751927047023665 0.5248072952976335 0.1671242264267778 0.8328757735732222 0.7901482250340705 0.2098517749659296 0.1489004591546088 0.8510995408453912 0.2426161073730809 0.757383892626919 0.6372689441448025 0.3627310558551976 0.7290392823400095 0.2709607176599906 0.4742414852005119 0.525758514799488 0.6954973529481026 0.3045026470518974 0.4112159477704302 0.5887840522295698 0.8633294702068507 0.1366705297931492 0.5754880916533301 0.4245119083466699 0.3479463859009548 0.6520536140990452 0.301052983992825 0.698947016007175 0.7084906729549489 0.2915093270450511 0.5013156952340241 0.4986843047659759 0.3381024021802659 0.6618975978197341 0.4042404797673047 0.5957595202326953 0.8813651915604842 0.1186348084395158 0.4525084333589154 0.5474915666410846 0.2871607249577386 0.7128392750422613 0.4826788619468531 0.5173211380531469 0.6623056930955257 0.3376943069044743 0.2158287649279202 0.78417123507208 0.3399611101681028 0.6600388898318972 0.3327978023593653 0.6672021976406346 0.8736924908058852 0.1263075091941149 0.4516957278421906 0.5483042721578093 0.2313225092951813 0.7686774907048187 0.05431232450150923 0.9456876754984909 0.7552746044178764 0.2447253955821236 0.1101037554209563 0.8898962445790437 0.2721598982315891 0.727840101768411 0.5149495191666129 0.4850504808333873 0.667126906605342 0.332873093394658 0.7222281960274738 0.2777718039725262 0.1775783257364822 0.8224216742635179 0.5687007795702764 0.4312992204297235 0.8257281824877712 0.1742718175122288 0.2441587440637862 0.7558412559362138 0.2231779996901808 0.7768220003098192 0.5352993047799967 0.4647006952200034 0.5794890721431114 0.4205109278568886 0.491056046546508 0.508943953453492 0.3779534861247287 0.6220465138752713 0.412869282604406 0.5871307173955939 0.5623299643770152 0.4376700356229846 0.5162073145483099 0.48379268545169 0.3444180759085961 0.6555819240914038 0.6551606723662067 0.3448393276337933 0.7933980583375676 0.2066019416624325 0.3945587891226927 0.6054412108773073 0.1826219582567321 0.8173780417432679 0.1338218286578202 0.8661781713421797 0.5403248840243579 0.4596751159756421 0.6729871927674091 0.3270128072325909 0.3669623992174842 0.6330376007825158 0.1945009953423037 0.8054990046576963 0.873070952679894 0.1269290473201061 0.3281776222850178 0.6718223777149821 0.08057878694681646 0.9194212130531835 0.3913173763797412 0.6086826236202588 0.7798563954977227 0.2201436045022772 0.2267024942745949 0.7732975057254051 0.4247815915899327 0.5752184084100672 0.1262049026301014 0.8737950973698986 0.8308590976448015 0.1691409023551985 0.2859619310000501 0.7140380689999498 0.2973995866301532 0.7026004133698468 0.5449654421147294 0.4550345578852706 0.7159806110770451 0.2840193889229549 0.6540498369095818 0.3459501630904182 0.6301228743552569 0.369877125644743 0.1571202891180059 0.8428797108819941 0.8107956074263606 0.1892043925736394 0.2346486120367176 0.7653513879632824 0.5698216653693865 0.4301783346306135 0.1966490270023147 0.8033509729976854 0.6118801664734086 0.3881198335265915 0.7654932134335722 0.2345067865664279 0.7162771207949019 0.283722879205098 0.3890346268391798 0.6109653731608202 0.7653280872579094 0.2346719127420907 0.1436423770915856 0.8563576229084144 0.3876829164283593 0.6123170835716407 0.439716203722361 0.5602837962776389 0.3849637183585131 0.6150362816414869</probabilities>
		</cpt>
	</nodes>
	<extensions>
		<genie version="1.0" app="GeNIe 4.0.2304.2 EVALUATION" name="Network3">
			<node id="TipoPlanta">
				<name>TipoPlanta</name>
				<interior color="e5f6f7" />
				<outline color="000080" />
				<font color="000000" name="Arial" size="8" />
				<position>70 106 150 210</position>
				<barchart active="true" width="128" height="64" />
			</node>
			<node id="HojaRota">
				<name>HojaRota</name>
				<interior color="e5f6f7" />
				<outline color="000080" />
				<font color="000000" name="Arial" size="8" />
				<position>355 118 519 196</position>
				<barchart active="true" width="128" height="64" />
			</node>
			<node id="FormaLesion">
				<name>FormaLesion</name>
				<interior color="e5f6f7" />
				<outline color="000080" />
				<font color="000000" name="Arial" size="8" />
				<position>414 385 462 415</position>
				<barchart active="true" width="128" height="72" />
			</node>
			<node id="ColorHoja">
				<name>ColorHoja</name>
				<interior color="e5f6f7" />
				<outline color="000080" />
				<font color="000000" name="Arial" size="8" />
				<position>412 260 460 290</position>
				<barchart active="true" width="128" height="90" />
			</node>
			<node id="Estacion">
				<name>Estacion</name>
				<interior color="e5f6f7" />
				<outline color="000080" />
				<font color="000000" name="Arial" size="8" />
				<position>79 299 135 334</position>
				<barchart active="true" width="128" height="90" />
			</node>
			<node id="mm">
				<name>mm</name>
				<interior color="e5f6f7" />
				<outline color="000080" />
				<font color="000000" name="Arial" size="8" />
				<position>237 470 285 500</position>
				<barchart active="true" width="128" height="90" />
			</node>
			<node id="Enferma">
				<name>Enferma</name>
				<interior color="e5f6f7" />
				<outline color="000080" />
				<font color="000000" name="Arial" size="8" />
				<position>754 437 802 467</position>
				<barchart active="true" width="128" height="119" />
			</node>
		</genie>
	</extensions>
</smile>
